{"intercept_": [-0.8800940790521099, -0.9188289794419505, -0.6412862683407032, -0.9414628533481533, -0.22949276642327462, -0.9246194234308236, -0.9229089709530666, -0.9448700614691121, -0.9471777831972016, -0.8570065186868897, -0.7961606500943763, -2.1818996892780387], "classes_": ["1", "2", "3", "4", "5", "6", "7", "9", "10", "12", "13", "14"], "coef_": [[-0.10900562264407035, 0.0, 0.0, -1.3258125360497273, 1.8688123625431303, -0.06751161445723144, -0.008684657813102722, -0.03551692522097204, -0.03582640815425246, -0.08843540623628683, -0.016439893259021787, -0.05625965164462555, -0.11068238721988277, -0.11510976362193612, -0.11613549285935586, -0.09438045373587814, -0.0799375422561939, -0.017017028790094656, -0.09049971819676493, -0.10302750072227868, -0.0799373003741277, -0.08171813077065339, -0.09592476910343463, -0.0030166552870431987], [-0.07379179984470449, 0.0, 0.0, 1.892887877028655, -0.07942300634322985, -0.06210190382720022, -0.006064388077268483, -0.06210188138517113, -0.07951440172091918, -0.0660431035037298, -0.07574326933105319, 0.011981574892762636, -0.0749273235939815, -0.0702305517731531, -0.09408059512360098, -0.07450024864290568, -0.054113893543827646, -0.004447233904940192, -0.07677061058142504, -0.048349312684420866, -0.05411392258098496, -0.05411401312841523, -0.06493685688559728, 0.036429397407909264], [-0.32610333063822183, 0.0, 0.0, -0.3431173254863504, -0.3565656445993191, 0.08630600486243607, -0.1343824861657667, -0.3560159752846823, 1.538911016875751, -0.23082202783482553, -0.9799558693481463, -0.29667982434782186, 1.2434868904504914, -0.3469799760174767, -1.0681331855904623, -0.21089330901440329, -0.23914255360280876, -0.09854693628077497, -0.3261035642747423, -0.307469082219442, -0.23914271033904153, -0.23914210051262239, -0.28697077823637207, -0.06535983913564274], [-0.053216094189993984, 0.0, 0.0, -0.6697043460568325, -1.1161734485629586, 0.1336223792710165, -0.03902444389616967, -0.15372791445806588, -0.05734303266262619, -1.4882311297406496, 1.6157225079225213, -0.12810672712322807, -1.5220546829758403, -0.05217690332920718, -0.6634597377884817, -0.015610776475870915, -0.07932153642214952, -0.02861792589888539, -1.0242616980180228, 0.060445231051569334, -0.0970484020468233, -0.10126411835007831, -0.6634597377884816, -0.6697043460568325], [-0.7004610488889602, 0.0, 0.0, -0.7690856344161003, -0.9686958553094871, -0.04466694541019557, -0.767497056987639, -0.8150991821713518, -0.7582910368482934, -1.2097251617311338, -1.354842844295673, -0.9686957581315356, -0.7146733609806611, -1.0115464582845717, -0.7988970530966565, 0.07373908798592477, 0.8366011922451213, 0.7705021518067023, 0.6825372760471352, 0.36748318964598653, 0.7621543516628222, 0.4521415557758372, 0.7416491238259826, -0.43609815113407263], [-0.06852765672475997, 0.0, -0.7595502467039318, -1.2659168888584176, -0.07492904410117289, 0.008688170905500408, -0.06215370620867061, -0.06725487278865486, -0.07384190830891417, -0.7595502467039319, -1.226447521906363, -0.06097506696452587, -0.0729906865972216, 1.82349495269127, -0.04528845472708458, -0.007011526991181717, -0.05025384506366288, -0.04557950536736428, -0.06852774778292342, -0.059204051521907726, -0.05750026521080257, -0.05025362228034873, -0.06030436888170169, 0.009214924156640561], [-0.07008295076355874, 0.0, 0.0, -0.11828389791097989, -0.07662957713394955, -0.04639855207072889, -0.04046923816762517, -0.04639858647024765, -0.07551793406107613, -0.06463989491356291, -0.0666161960200711, -0.007493370066095121, -0.05355476315486174, -1.7091788962613579, 1.8620230272389424, -0.03257503381605559, -0.05139414327043042, -0.029677652570114645, -0.05952862979807391, -0.06607818162219788, -0.05941540457296493, -0.05139406671472656, -0.005644031934784403, 0.05229843711933316], [-0.05011775404248084, 0.0, -0.5101015433987341, -1.1377001914341704, -1.0930742972198642, -1.0957370583475394, 0.0, -0.4122677836690377, -1.1771569732023954, 1.220123942961398, 0.07617906470041977, 0.004658825983391096, -1.0202029251207638, -0.5101015433987341, -0.8532747829355486, -1.022066258288289, -0.03675323121573825, 0.0, 0.0768951678224781, -0.12263892909159452, -0.8019873509629574, 0.760406151846404, -1.0202028953225855, 0.0], [-0.0480197436510162, 0.0, 1.1776721153358207, -0.33024633507697865, -1.0157815574607927, 1.3838373787397726, 1.0899327387521516, 0.15063591664568227, -0.06965780580096431, 0.22508820058776202, -1.3888889349151423, 0.09361885181894913, -1.2115197237015394, -0.04441791186032901, -0.6320215522958864, 0.6466754930321982, -0.03521452847062091, -0.4663304749312883, -0.46633104032694767, -0.4880032358915482, -0.4880032438536929, -0.17898332008985857, -0.08890953045692002, -0.9281610931193012], [1.6881875110914668, 0.0, 0.0, -0.1370123879824041, -0.14213839640755213, -0.06693350399115813, -0.019768921680615073, -0.06693365994766481, -0.14007524717136155, -0.13546743299825503, -0.13932729020952217, -0.060848588734162, -0.13199426461333297, -0.13727415149436056, -0.13838104459991235, -0.12124850028567179, -0.09532909342638071, -0.014497112718617452, -0.12999423693573528, -0.12256617314122983, -0.09532922692940182, -0.09532940565630542, -0.11439488649037591, -0.005436588051998827], [-0.18530839625482637, 0.0, -0.007756195396336265, -0.4590807837401728, -0.7951300207728943, -1.1433432861447694, -0.28620969251387085, 0.988855057620498, -0.31344333569418, 0.13549341170014825, -0.3407993930695926, 0.17713276737421466, -0.2714660012413315, -0.3276982768550393, -0.4220548135700213, 0.11099131753672671, -0.24512742127475315, -0.20988697747390445, 0.11256628470202787, 0.16385176425786813, -0.5123193133736786, -0.7951298465925755, 0.5646399977926363, 1.3877787807814457e-17], [-6.938893903907228e-18, 0.0, 0.0, -0.03554857233998593, -0.059247893236838475, -0.19897364336663734, 0.0, 3.469446951953614e-18, -0.028425231115140337, -0.19328867292439328, 1.2707706114836508, 0.0, 1.423510581238911, -0.009732264551781802, -0.1610747923824649, -0.05924716064139206, 0.0, 0.0, -0.0015369520312063644, -0.07427215335784307, -0.0061471581574756295, -0.0061471581574756295, 0.0, -0.03554857233998596]]}